Language model created by QuickLM on Wed Jan 28 09:35:15 EST 2015
Copyright (c) 1996-2010 Carnegie Mellon University and Alexander I. Rudnicky

The model is in standard ARPA format, designed by Doug Paul while he was at MITRE.

The code that was used to produce this language model is available in Open Source.
Please visit http://www.speech.cs.cmu.edu/tools/ for more information

The (fixed) discount mass is 0.5. The backoffs are computed using the ratio method.
This model based on a corpus of 18 sentences and 30 words

\data\
ngram 1=30
ngram 2=49
ngram 3=50

\1-grams:
-1.0235 </s> -0.3010
-1.0235 <s> -0.2424
-2.2788 A -0.2987
-2.2788 BEER -0.2578
-1.8016 BOTTLE -0.2527
-1.9777 BRING -0.2918
-1.1996 BUDDY -0.2291
-2.2788 CAN -0.2987
-2.2788 CLIMB -0.2987
-1.9777 COFFE -0.2578
-2.2788 COKE -0.2578
-2.2788 COME -0.2987
-2.2788 FETCH -0.2941
-1.9777 FROM -0.2894
-1.5006 GET -0.2847
-1.9777 GO -0.2964
-2.2788 HELLO -0.2727
-2.2788 HERE -0.2578
-2.2788 HEY -0.2727
-2.2788 HI -0.2727
-1.8016 KITCHEN -0.2578
-1.6767 ME -0.2871
-1.9777 PIZZA -0.2527
-2.2788 STAIRS -0.2578
-2.2788 STOP -0.2578
-1.9777 THE -0.2941
-2.2788 THERE -0.2578
-2.2788 TO -0.2964
-1.8016 WATER -0.2941
-2.2788 YOU -0.2987

\2-grams:
-1.2553 <s> BRING 0.0000
-0.6021 <s> BUDDY 0.0000
-1.5563 <s> CAN 0.0000
-1.0792 <s> GET -0.1249
-1.5563 <s> HELLO 0.0000
-1.5563 <s> HEY 0.0000
-1.5563 <s> HI 0.0000
-0.3010 A BEER 0.0000
-0.3010 BEER </s> -0.3010
-0.4771 BOTTLE </s> -0.3010
-0.7782 BOTTLE FROM -0.1761
-0.6021 BRING COFFE 0.0000
-0.6021 BRING PIZZA -0.1761
-0.7782 BUDDY </s> -0.3010
-1.3802 BUDDY COME 0.0000
-1.3802 BUDDY FETCH 0.0000
-0.9031 BUDDY GET 0.0000
-1.0792 BUDDY GO 0.0000
-1.3802 BUDDY STOP 0.0000
-0.3010 CAN YOU 0.0000
-0.3010 CLIMB STAIRS 0.0000
-0.3010 COFFE </s> -0.3010
-0.3010 COKE </s> -0.3010
-0.3010 COME HERE 0.0000
-0.3010 FETCH WATER 0.0000
-0.6021 FROM KITCHEN 0.0000
-0.6021 FROM THE 0.0000
-0.4771 GET ME 0.0000
-0.7782 GET WATER 0.0000
-0.6021 GO THERE 0.0000
-0.6021 GO TO 0.0000
-0.3010 HELLO BUDDY -0.2218
-0.3010 HERE </s> -0.3010
-0.3010 HEY BUDDY -0.2218
-0.3010 HI BUDDY -0.2218
-0.3010 KITCHEN </s> -0.3010
-0.9031 ME A 0.0000
-0.9031 ME COFFE 0.0000
-0.9031 ME COKE 0.0000
-0.9031 ME PIZZA -0.1761
-0.6021 PIZZA </s> -0.3010
-0.6021 PIZZA FROM -0.1761
-0.3010 STAIRS </s> -0.3010
-0.3010 STOP </s> -0.3010
-0.3010 THE KITCHEN 0.0000
-0.3010 THERE </s> -0.3010
-0.3010 TO THE 0.0000
-0.3010 WATER BOTTLE 0.0000
-0.3010 YOU CLIMB 0.0000

\3-grams:
-0.6021 <s> BRING COFFE
-0.6021 <s> BRING PIZZA
-1.2553 <s> BUDDY </s>
-1.2553 <s> BUDDY COME
-1.2553 <s> BUDDY FETCH
-0.7782 <s> BUDDY GET
-0.9542 <s> BUDDY GO
-1.2553 <s> BUDDY STOP
-0.3010 <s> CAN YOU
-0.3010 <s> GET ME
-0.3010 <s> HELLO BUDDY
-0.3010 <s> HEY BUDDY
-0.3010 <s> HI BUDDY
-0.3010 A BEER </s>
-0.3010 BOTTLE FROM THE
-0.3010 BRING COFFE </s>
-0.3010 BRING PIZZA FROM
-0.3010 BUDDY COME HERE
-0.3010 BUDDY FETCH WATER
-0.7782 BUDDY GET ME
-0.4771 BUDDY GET WATER
-0.6021 BUDDY GO THERE
-0.6021 BUDDY GO TO
-0.3010 BUDDY STOP </s>
-0.3010 CAN YOU CLIMB
-0.3010 CLIMB STAIRS </s>
-0.3010 COME HERE </s>
-0.3010 FETCH WATER BOTTLE
-0.3010 FROM KITCHEN </s>
-0.3010 FROM THE KITCHEN
-0.9031 GET ME A
-0.9031 GET ME COFFE
-0.9031 GET ME COKE
-0.9031 GET ME PIZZA
-0.3010 GET WATER BOTTLE
-0.3010 GO THERE </s>
-0.3010 GO TO THE
-0.3010 HELLO BUDDY </s>
-0.3010 HEY BUDDY </s>
-0.3010 HI BUDDY </s>
-0.3010 ME A BEER
-0.3010 ME COFFE </s>
-0.3010 ME COKE </s>
-0.3010 ME PIZZA </s>
-0.3010 PIZZA FROM KITCHEN
-0.3010 THE KITCHEN </s>
-0.3010 TO THE KITCHEN
-0.4771 WATER BOTTLE </s>
-0.7782 WATER BOTTLE FROM
-0.3010 YOU CLIMB STAIRS

\end\
